svm_type c_svc
kernel_type rbf
gamma 1e-06
nr_class 4
total_sv 4
rho 0 0 0 0 0 0
label 12 13 1 16
nr_sv 1 1 1 1
SV
1 1 237.1874346141884 2:1 3:2 4:1 5:128 12:1 13:1 14:65535 16:4 17:2 18:1 19:1 20:4 57:1460 
-1 1 1 2:1 3:2 4:1 5:128 14:8192 16:6 17:2 18:1 19:3 20:1 21:1 22:4 57:1460 58:8 
-1 -1 1 2:1 3:2 4:1 5:64 13:1 16:5 17:2 18:4 19:8 20:1 21:3 57:1460 58:5 59:1 61:4 
-237.1874346141884 -1 -1 2:1 3:2 4:1 5:64 12:1 13:1 14:65535 16:9 17:2 18:1 19:3 20:1 21:1 22:8 23:4 57:1460 58:3 59:1 
